{"hsize": 6, "h2": {"bias": -2.1306562988365867, "weights": [-1.2099970153593178, 2.0995607878045854, 3.810998676780822, 1.4263246842023196, -1.8974961472596807, 0.1567633461212347, -0.08656971309940774, -0.2404529888266874, 0.270390734503442, -0.3661989388685629, -1.1379048013146222]}, "h3": {"bias": 0.08013872924808609, "weights": [-0.5208065033541863, -0.17710123088155721, -1.2299807454010554, -0.7319140923718142, -0.1352571874984201, -0.9065450455282912, -0.8105626238126701, -0.4092321072066735, 0.1428369147081379, 0.4159098614902981, 0.6508453608518029]}, "h0": {"bias": -2.289744231125194, "weights": [-0.6212222471405741, 2.52845825191997, 4.416440759550584, 2.1343549912482946, -1.8198652166255325, 0.06032792525565807, -0.11137826155042399, -0.49706746637993987, -0.18810234856690441, -0.5706579046441053, -2.2507464754627318]}, "h1": {"bias": 0.5025961930784194, "weights": [0.40240609111178033, -1.344450768527039, -1.5119183976052886, -0.46897140479803406, 0.18131277846387575, -0.6852833698311127, -1.3442702673647045, 0.0033170420115589978, 0.05858877671543411, 0.23830092980976775, 0.7544433254735281]}, "h4": {"bias": -1.7978806164150838, "weights": [-0.8673528341131813, 1.677009619029641, 2.8675470335063307, 1.4033677004801863, -0.8389071061523408, 0.4548831023371855, 0.27023823498645366, -0.042643579997116245, -0.09494307901548796, -0.5543056633623711, -1.6562879744618213]}, "h5": {"bias": 0.7096511441749869, "weights": [-0.029632972908356967, -0.414356864613842, -1.9050134342628464, -0.5427978842060002, 1.2413951797732503, -0.9644922168416387, -1.7546235675289323, 0.5591323299611589, -0.049893968282411494, 0.2042967010743836, 1.062409901231837]}, "out": {"bias": 1.3597532108963626, "weights": [-3.0422255768172697, 2.0895712076790676, -2.7468132611990463, 1.4362935477170533, -1.8845606046907108, 2.366800838153987]}}